digraph Tree {
node [shape=box, style="filled, rounded", color="black", fontname=helvetica] ;
edge [fontname=helvetica] ;
0 [label="FROM_AIRPORT_SAN <= 0.5\nmse = 0.27\nsamples = 9629\nvalue = 0.4", fillcolor="#fcf2ea"] ;
1 [label="FROM_AIRPORT_LAS <= 0.5\nmse = 0.04\nsamples = 9034\nvalue = 0.28", fillcolor="#fdf7f3"] ;
0 -> 1 [labeldistance=2.5, labelangle=45, headlabel="True"] ;
2 [label="CXR_NK <= 0.5\nmse = 0.02\nsamples = 8098\nvalue = 0.24", fillcolor="#fef9f5"] ;
1 -> 2 ;
3 [label="FROM_AIRPORT_LHR <= 0.5\nmse = 0.02\nsamples = 6486\nvalue = 0.27", fillcolor="#fdf8f3"] ;
2 -> 3 ;
4 [label="mse = 0.02\nsamples = 6435\nvalue = 0.26", fillcolor="#fef8f4"] ;
3 -> 4 ;
5 [label="mse = 0.03\nsamples = 51\nvalue = 1.03", fillcolor="#f6d5be"] ;
3 -> 5 ;
6 [label="FROM_AIRPORT_OAK <= 0.5\nmse = 0.0\nsamples = 1612\nvalue = 0.12", fillcolor="#fffefe"] ;
2 -> 6 ;
7 [label="mse = 0.0\nsamples = 1458\nvalue = 0.1", fillcolor="#ffffff"] ;
6 -> 7 ;
8 [label="mse = 0.01\nsamples = 154\nvalue = 0.24", fillcolor="#fef9f5"] ;
6 -> 8 ;
9 [label="CXR_NK <= 0.5\nmse = 0.11\nsamples = 936\nvalue = 0.6", fillcolor="#fae9dc"] ;
1 -> 9 ;
10 [label="week_2 <= 0.5\nmse = 0.09\nsamples = 607\nvalue = 0.76", fillcolor="#f9e2d1"] ;
9 -> 10 ;
11 [label="mse = 0.07\nsamples = 593\nvalue = 0.74", fillcolor="#f9e2d2"] ;
10 -> 11 ;
12 [label="mse = 0.32\nsamples = 14\nvalue = 1.37", fillcolor="#f3c6a6"] ;
10 -> 12 ;
13 [label="weekend_1 <= 0.5\nmse = 0.02\nsamples = 329\nvalue = 0.3", fillcolor="#fdf6f1"] ;
9 -> 13 ;
14 [label="mse = 0.01\nsamples = 185\nvalue = 0.26", fillcolor="#fef8f4"] ;
13 -> 14 ;
15 [label="mse = 0.03\nsamples = 144\nvalue = 0.35", fillcolor="#fdf4ee"] ;
13 -> 15 ;
16 [label="CXR_DL <= 0.5\nmse = 0.2\nsamples = 595\nvalue = 2.22", fillcolor="#eba06a"] ;
0 -> 16 [labeldistance=2.5, labelangle=-45, headlabel="False"] ;
17 [label="week_52 <= 0.5\nmse = 0.04\nsamples = 312\nvalue = 2.58", fillcolor="#e89051"] ;
16 -> 17 ;
18 [label="week_51 <= 0.5\nmse = 0.04\nsamples = 305\nvalue = 2.57", fillcolor="#e89051"] ;
17 -> 18 ;
19 [label="mse = 0.03\nsamples = 296\nvalue = 2.56", fillcolor="#e89152"] ;
18 -> 19 ;
20 [label="mse = 0.26\nsamples = 9\nvalue = 2.82", fillcolor="#e68540"] ;
18 -> 20 ;
21 [label="weekend_1 <= 0.5\nmse = 0.02\nsamples = 7\nvalue = 2.91", fillcolor="#e58139"] ;
17 -> 21 ;
22 [label="mse = 0.04\nsamples = 4\nvalue = 2.91", fillcolor="#e5813a"] ;
21 -> 22 ;
23 [label="mse = 0.0\nsamples = 3\nvalue = 2.92", fillcolor="#e58139"] ;
21 -> 23 ;
24 [label="week_41 <= 0.5\nmse = 0.1\nsamples = 283\nvalue = 1.85", fillcolor="#efb184"] ;
16 -> 24 ;
25 [label="week_50 <= 0.5\nmse = 0.09\nsamples = 278\nvalue = 1.86", fillcolor="#efb083"] ;
24 -> 25 ;
26 [label="mse = 0.09\nsamples = 273\nvalue = 1.87", fillcolor="#efb083"] ;
25 -> 26 ;
27 [label="mse = 0.0\nsamples = 5\nvalue = 1.21", fillcolor="#f5cdb1"] ;
25 -> 27 ;
28 [label="weekend_1 <= 0.5\nmse = 0.0\nsamples = 5\nvalue = 1.4", fillcolor="#f3c5a4"] ;
24 -> 28 ;
29 [label="mse = 0.0\nsamples = 2\nvalue = 1.4", fillcolor="#f3c5a4"] ;
28 -> 29 ;
30 [label="mse = 0.0\nsamples = 3\nvalue = 1.4", fillcolor="#f3c5a4"] ;
28 -> 30 ;
}