digraph Tree {
node [shape=box, style="filled, rounded", color="black", fontname=helvetica] ;
edge [fontname=helvetica] ;
0 [label="FROM_AIRPORT_SAN <= 0.5\nmse = 0.15\nsamples = 10069\nvalue = 0.31", fillcolor="#fcf2ea"] ;
1 [label="FROM_AIRPORT_LAS <= 0.5\nmse = 0.04\nsamples = 9623\nvalue = 0.24", fillcolor="#fdf7f2"] ;
0 -> 1 [labeldistance=2.5, labelangle=45, headlabel="True"] ;
2 [label="CXR_DL <= 0.5\nmse = 0.01\nsamples = 8722\nvalue = 0.2", fillcolor="#fef9f6"] ;
1 -> 2 ;
3 [label="CXR_NK <= 0.5\nmse = 0.01\nsamples = 4592\nvalue = 0.15", fillcolor="#fffdfb"] ;
2 -> 3 ;
4 [label="mse = 0.01\nsamples = 2167\nvalue = 0.19", fillcolor="#fefaf7"] ;
3 -> 4 ;
5 [label="mse = 0.0\nsamples = 2425\nvalue = 0.12", fillcolor="#ffffff"] ;
3 -> 5 ;
6 [label="FROM_AIRPORT_SFO <= 0.5\nmse = 0.01\nsamples = 4130\nvalue = 0.26", fillcolor="#fdf5ef"] ;
2 -> 6 ;
7 [label="mse = 0.01\nsamples = 3892\nvalue = 0.25", fillcolor="#fdf6f1"] ;
6 -> 7 ;
8 [label="mse = 0.01\nsamples = 238\nvalue = 0.48", fillcolor="#fae5d7"] ;
6 -> 8 ;
9 [label="CXR_NK <= 0.5\nmse = 0.15\nsamples = 901\nvalue = 0.56", fillcolor="#f9e0ce"] ;
1 -> 9 ;
10 [label="week_2 <= 0.5\nmse = 0.15\nsamples = 449\nvalue = 0.82", fillcolor="#f5ceb1"] ;
9 -> 10 ;
11 [label="mse = 0.12\nsamples = 437\nvalue = 0.8", fillcolor="#f5cfb4"] ;
10 -> 11 ;
12 [label="mse = 0.48\nsamples = 12\nvalue = 1.63", fillcolor="#e99559"] ;
10 -> 12 ;
13 [label="weekend_1 <= 0.5\nmse = 0.02\nsamples = 452\nvalue = 0.3", fillcolor="#fcf2eb"] ;
9 -> 13 ;
14 [label="mse = 0.01\nsamples = 270\nvalue = 0.25", fillcolor="#fdf6f0"] ;
13 -> 14 ;
15 [label="mse = 0.03\nsamples = 182\nvalue = 0.36", fillcolor="#fbeee4"] ;
13 -> 15 ;
16 [label="week_41 <= 0.5\nmse = 0.09\nsamples = 446\nvalue = 1.88", fillcolor="#e6843d"] ;
0 -> 16 [labeldistance=2.5, labelangle=-45, headlabel="False"] ;
17 [label="week_50 <= 0.5\nmse = 0.09\nsamples = 439\nvalue = 1.89", fillcolor="#e5833c"] ;
16 -> 17 ;
18 [label="week_46 <= 0.5\nmse = 0.08\nsamples = 433\nvalue = 1.9", fillcolor="#e5823a"] ;
17 -> 18 ;
19 [label="mse = 0.08\nsamples = 422\nvalue = 1.91", fillcolor="#e58139"] ;
18 -> 19 ;
20 [label="mse = 0.01\nsamples = 11\nvalue = 1.38", fillcolor="#eda674"] ;
18 -> 20 ;
21 [label="weekend_1 <= 0.5\nmse = 0.0\nsamples = 6\nvalue = 1.28", fillcolor="#eeae7f"] ;
17 -> 21 ;
22 [label="mse = 0.0\nsamples = 2\nvalue = 1.27", fillcolor="#eeae80"] ;
21 -> 22 ;
23 [label="mse = 0.0\nsamples = 4\nvalue = 1.28", fillcolor="#eeae7f"] ;
21 -> 23 ;
24 [label="weekend_1 <= 0.5\nmse = 0.0\nsamples = 7\nvalue = 1.36", fillcolor="#eda876"] ;
16 -> 24 ;
25 [label="mse = -0.0\nsamples = 3\nvalue = 1.35", fillcolor="#eda877"] ;
24 -> 25 ;
26 [label="mse = 0.01\nsamples = 4\nvalue = 1.37", fillcolor="#eda775"] ;
24 -> 26 ;
}